svm_type epsilon_svr
kernel_type rbf
gamma 0.5
nr_class 2
total_sv 6
rho -7.840476758737704
SV
1.0 1:10.0 2:20.0 
0.7964159453120917 1:10.0 2:17.0 
0.6847856612777606 1:9.0 2:18.0 
-0.7409930908240988 1:10.0 2:11.0 
-0.7402085157657535 1:5.0 2:16.0 
-1.0 1:4.0 2:11.0 
