svm_type epsilon_svr
kernel_type rbf
gamma 0.5
nr_class 2
total_sv 5
rho -8.16948711517403
SV
1.0 1:10.0 2:20.0 
0.5561070809930452 1:10.0 2:17.0 
0.4438929190069549 1:9.0 2:18.0 
-1.0 1:10.0 2:11.0 
-1.0 1:5.0 2:16.0 
